class RandomForestModel {
  /// Predicts a score based on a list of RAW (un-normalized) input features.
double score(List<double> input) {
    double var0;
    if (input[2] <= 3747.0999755859375) {
        if (input[2] <= 3275.1500244140625) {
            if (input[1] <= 3115.199951171875) {
                if (input[2] <= 2961.75) {
                    if (input[1] <= 2964.9000244140625) {
                        if (input[0] <= 2903.5) {
                            var0 = 2914.2;
                        } else {
                            if (input[2] <= 2892.6500244140625) {
                                if (input[1] <= 2939.4000244140625) {
                                    var0 = 2901.9;
                                } else {
                                    var0 = 2899.1;
                                }
                            } else {
                                var0 = 2896.1;
                            }
                        }
                    } else {
                        if (input[3] <= 2997.7999267578125) {
                            if (input[2] <= 2949.300048828125) {
                                var0 = 2970.7;
                            } else {
                                var0 = 2973.7;
                            }
                        } else {
                            var0 = 2960.3;
                        }
                    }
                } else {
                    if (input[1] <= 3067.9000244140625) {
                        if (input[2] <= 3010.449951171875) {
                            if (input[4] <= 3627464.0) {
                                if (input[0] <= 3039.0) {
                                    if (input[3] <= 3002.699951171875) {
                                        if (input[4] <= 2837880.0) {
                                            var0 = 3010.9;
                                        } else {
                                            var0 = 3015.2;
                                        }
                                    } else {
                                        if (input[1] <= 3033.6500244140625) {
                                            var0 = 3006.7;
                                        } else {
                                            var0 = 3007.2;
                                        }
                                    }
                                } else {
                                    var0 = 3016.8;
                                }
                            } else {
                                var0 = 3027.2;
                            }
                        } else {
                            if (input[1] <= 3053.75) {
                                if (input[0] <= 3026.050048828125) {
                                    var0 = 3047.0;
                                } else {
                                    if (input[0] <= 3036.25) {
                                        var0 = 3036.2;
                                    } else {
                                        var0 = 3040.8;
                                    }
                                }
                            } else {
                                if (input[0] <= 3048.5) {
                                    var0 = 3022.3;
                                } else {
                                    var0 = 3032.3;
                                }
                            }
                        }
                    } else {
                        if (input[4] <= 2616334.0) {
                            if (input[3] <= 3033.0999755859375) {
                                var0 = 3074.4;
                            } else {
                                if (input[4] <= 2247331.0) {
                                    var0 = 3084.9;
                                } else {
                                    var0 = 3087.1;
                                }
                            }
                        } else {
                            if (input[2] <= 3049.5999755859375) {
                                if (input[3] <= 3075.8499755859375) {
                                    var0 = 3053.6;
                                } else {
                                    var0 = 3048.3;
                                }
                            } else {
                                if (input[2] <= 3061.6500244140625) {
                                    if (input[2] <= 3055.1500244140625) {
                                        var0 = 3062.4;
                                    } else {
                                        var0 = 3063.2;
                                    }
                                } else {
                                    var0 = 3073.8;
                                }
                            }
                        }
                    }
                }
            } else {
                if (input[1] <= 3236.8499755859375) {
                    if (input[1] <= 3175.8499755859375) {
                        if (input[1] <= 3129.949951171875) {
                            var0 = 3102.2;
                        } else {
                            if (input[1] <= 3154.5) {
                                if (input[3] <= 3139.3499755859375) {
                                    if (input[1] <= 3140.199951171875) {
                                        var0 = 3131.8;
                                    } else {
                                        if (input[2] <= 3098.75) {
                                            var0 = 3140.6;
                                        } else {
                                            var0 = 3135.0;
                                        }
                                    }
                                } else {
                                    var0 = 3119.2;
                                }
                            } else {
                                if (input[4] <= 4336575.0) {
                                    if (input[4] <= 2634842.0) {
                                        var0 = 3135.8;
                                    } else {
                                        if (input[4] <= 2817772.5) {
                                            var0 = 3144.8;
                                        } else {
                                            var0 = 3147.85;
                                        }
                                    }
                                } else {
                                    var0 = 3157.2;
                                }
                            }
                        }
                    } else {
                        if (input[1] <= 3200.300048828125) {
                            if (input[2] <= 3148.0) {
                                if (input[0] <= 3135.4000244140625) {
                                    var0 = 3162.9;
                                } else {
                                    if (input[0] <= 3161.0) {
                                        var0 = 3172.8000000000006;
                                    } else {
                                        var0 = 3169.2;
                                    }
                                }
                            } else {
                                if (input[3] <= 3174.0499267578125) {
                                    var0 = 3159.6;
                                } else {
                                    var0 = 3158.2;
                                }
                            }
                        } else {
                            if (input[3] <= 3191.0) {
                                if (input[1] <= 3207.449951171875) {
                                    var0 = 3176.7;
                                } else {
                                    var0 = 3180.0;
                                }
                            } else {
                                var0 = 3189.9;
                            }
                        }
                    }
                } else {
                    if (input[3] <= 3269.9000244140625) {
                        if (input[4] <= 3718084.5) {
                            if (input[3] <= 3241.9000244140625) {
                                if (input[2] <= 3222.300048828125) {
                                    var0 = 3252.3;
                                } else {
                                    var0 = 3248.2;
                                }
                            } else {
                                var0 = 3233.1;
                            }
                        } else {
                            if (input[4] <= 4474957.0) {
                                var0 = 3222.6999999999994;
                            } else {
                                if (input[3] <= 3213.300048828125) {
                                    var0 = 3229.2;
                                } else {
                                    var0 = 3231.5;
                                }
                            }
                        }
                    } else {
                        if (input[3] <= 3283.5) {
                            if (input[4] <= 4244952.0) {
                                var0 = 3298.9;
                            } else {
                                var0 = 3292.95;
                            }
                        } else {
                            if (input[0] <= 3180.2750244140625) {
                                var0 = 3274.05;
                            } else {
                                var0 = 3246.6;
                            }
                        }
                    }
                }
            }
        } else {
            if (input[1] <= 3513.875) {
                if (input[2] <= 3397.125) {
                    if (input[2] <= 3325.75) {
                        if (input[3] <= 3362.375) {
                            var0 = 3314.4;
                        } else {
                            var0 = 3299.4;
                        }
                    } else {
                        if (input[2] <= 3375.699951171875) {
                            if (input[4] <= 3309847.5) {
                                if (input[1] <= 3394.949951171875) {
                                    var0 = 3384.2;
                                } else {
                                    var0 = 3382.0;
                                }
                            } else {
                                var0 = 3371.1;
                            }
                        } else {
                            if (input[4] <= 3394998.0) {
                                var0 = 3401.6;
                            } else {
                                var0 = 3403.15;
                            }
                        }
                    }
                } else {
                    if (input[4] <= 2847569.0) {
                        if (input[1] <= 3481.800048828125) {
                            if (input[1] <= 3454.4000244140625) {
                                if (input[2] <= 3411.949951171875) {
                                    if (input[4] <= 2441502.5) {
                                        var0 = 3435.7;
                                    } else {
                                        var0 = 3440.3;
                                    }
                                } else {
                                    var0 = 3424.0;
                                }
                            } else {
                                if (input[4] <= 1828009.0) {
                                    if (input[4] <= 1685864.5) {
                                        if (input[4] <= 1535212.0) {
                                            var0 = 3445.1;
                                        } else {
                                            var0 = 3443.5;
                                        }
                                    } else {
                                        var0 = 3441.1;
                                    }
                                } else {
                                    if (input[1] <= 3477.4000244140625) {
                                        if (input[0] <= 3449.0) {
                                            var0 = 3448.9;
                                        } else {
                                            var0 = 3449.8;
                                        }
                                    } else {
                                        var0 = 3448.0;
                                    }
                                }
                            }
                        } else {
                            if (input[0] <= 3452.5) {
                                if (input[1] <= 3495.1500244140625) {
                                    var0 = 3462.9;
                                } else {
                                    var0 = 3454.3;
                                }
                            } else {
                                if (input[1] <= 3492.0) {
                                    var0 = 3471.9;
                                } else {
                                    var0 = 3472.5;
                                }
                            }
                        }
                    } else {
                        var0 = 3405.2;
                    }
                }
            } else {
                if (input[1] <= 3604.7249755859375) {
                    if (input[2] <= 3506.9000244140625) {
                        if (input[4] <= 2924490.5) {
                            if (input[3] <= 3504.675048828125) {
                                if (input[3] <= 3485.0250244140625) {
                                    var0 = 3514.6;
                                } else {
                                    if (input[1] <= 3544.0) {
                                        var0 = 3525.8;
                                    } else {
                                        var0 = 3532.0500000000006;
                                    }
                                }
                            } else {
                                if (input[0] <= 3541.0) {
                                    if (input[3] <= 3514.925048828125) {
                                        var0 = 3497.7;
                                    } else {
                                        if (input[1] <= 3549.0) {
                                            var0 = 3498.7;
                                        } else {
                                            var0 = 3498.3;
                                        }
                                    }
                                } else {
                                    var0 = 3518.8;
                                }
                            }
                        } else {
                            if (input[3] <= 3582.5) {
                                if (input[4] <= 4089255.5) {
                                    if (input[2] <= 3474.625) {
                                        var0 = 3497.1;
                                    } else {
                                        var0 = 3498.1;
                                    }
                                } else {
                                    var0 = 3493.0500000000006;
                                }
                            } else {
                                var0 = 3483.25;
                            }
                        }
                    } else {
                        if (input[2] <= 3538.0750732421875) {
                            if (input[4] <= 1365891.5) {
                                var0 = 3537.3;
                            } else {
                                var0 = 3543.95;
                            }
                        } else {
                            var0 = 3561.3;
                        }
                    }
                } else {
                    if (input[1] <= 3626.75) {
                        if (input[3] <= 3583.7249755859375) {
                            var0 = 3601.6;
                        } else {
                            var0 = 3515.0;
                        }
                    } else {
                        if (input[1] <= 3661.9749755859375) {
                            if (input[3] <= 3603.8250732421875) {
                                if (input[1] <= 3640.125) {
                                    var0 = 3620.4;
                                } else {
                                    var0 = 3628.95;
                                }
                            } else {
                                if (input[4] <= 2937887.5) {
                                    var0 = 3606.15;
                                } else {
                                    var0 = 3612.55;
                                }
                            }
                        } else {
                            if (input[3] <= 3632.375) {
                                var0 = 3657.75;
                            } else {
                                var0 = 3651.2;
                            }
                        }
                    }
                }
            }
        }
    } else {
        if (input[3] <= 4298.72509765625) {
            if (input[2] <= 3976.8499755859375) {
                if (input[1] <= 3941.0) {
                    if (input[1] <= 3929.199951171875) {
                        var0 = 3873.2;
                    } else {
                        var0 = 3904.5;
                    }
                } else {
                    if (input[0] <= 3971.699951171875) {
                        var0 = 3934.85;
                    } else {
                        var0 = 3963.55;
                    }
                }
            } else {
                if (input[2] <= 4094.6251220703125) {
                    if (input[2] <= 4042.625) {
                        if (input[3] <= 4028.8499755859375) {
                            var0 = 4108.4;
                        } else {
                            if (input[4] <= 1302612.0) {
                                var0 = 4068.65;
                            } else {
                                if (input[2] <= 4035.5250244140625) {
                                    if (input[2] <= 4011.175048828125) {
                                        var0 = 4029.4;
                                    } else {
                                        if (input[4] <= 2182031.5) {
                                            var0 = 4036.6749999999997;
                                        } else {
                                            var0 = 4039.9375000000005;
                                        }
                                    }
                                } else {
                                    var0 = 4065.15;
                                }
                            }
                        }
                    } else {
                        if (input[4] <= 2346879.5) {
                            if (input[1] <= 4134.949951171875) {
                                if (input[2] <= 4069.625) {
                                    var0 = 4099.8;
                                } else {
                                    if (input[1] <= 4131.22509765625) {
                                        var0 = 4112.4;
                                    } else {
                                        var0 = 4112.45;
                                    }
                                }
                            } else {
                                if (input[1] <= 4147.724853515625) {
                                    if (input[2] <= 4053.7750244140625) {
                                        var0 = 4082.75;
                                    } else {
                                        if (input[3] <= 4118.349853515625) {
                                            var0 = 4073.15;
                                        } else {
                                            var0 = 4077.8;
                                        }
                                    }
                                } else {
                                    if (input[4] <= 1938773.0) {
                                        var0 = 4099.9;
                                    } else {
                                        var0 = 4095.0;
                                    }
                                }
                            }
                        } else {
                            var0 = 4156.6;
                        }
                    }
                } else {
                    if (input[2] <= 4169.550048828125) {
                        if (input[0] <= 4135.5) {
                            var0 = 4175.75;
                        } else {
                            if (input[2] <= 4131.074951171875) {
                                if (input[1] <= 4208.14990234375) {
                                    var0 = 4158.8;
                                } else {
                                    var0 = 4158.3;
                                }
                            } else {
                                var0 = 4164.85;
                            }
                        }
                    } else {
                        var0 = 4206.3;
                    }
                }
            }
        } else {
            if (input[1] <= 4416.699951171875) {
                var0 = 4271.9;
            } else {
                if (input[3] <= 4459.699951171875) {
                    if (input[1] <= 4477.199951171875) {
                        var0 = 4452.15;
                    } else {
                        var0 = 4454.95;
                    }
                } else {
                    var0 = 4415.2;
                }
            }
        }
    }
    double var1;
    if (input[1] <= 3763.5) {
        if (input[1] <= 3342.0) {
            if (input[1] <= 3120.3499755859375) {
                if (input[2] <= 2961.75) {
                    if (input[0] <= 2955.449951171875) {
                        if (input[0] <= 2903.5) {
                            var1 = 2914.1999999999994;
                        } else {
                            if (input[3] <= 2906.6500244140625) {
                                var1 = 2896.1;
                            } else {
                                if (input[3] <= 2935.7999267578125) {
                                    var1 = 2901.9;
                                } else {
                                    var1 = 2899.1;
                                }
                            }
                        }
                    } else {
                        if (input[0] <= 3008.5) {
                            if (input[4] <= 3157219.0) {
                                var1 = 2973.7;
                            } else {
                                var1 = 2970.7;
                            }
                        } else {
                            var1 = 2957.4;
                        }
                    }
                } else {
                    if (input[1] <= 3065.449951171875) {
                        if (input[1] <= 3039.9000244140625) {
                            if (input[1] <= 3026.1500244140625) {
                                var1 = 3015.1999999999994;
                            } else {
                                if (input[4] <= 2362283.5) {
                                    var1 = 3003.0;
                                } else {
                                    var1 = 2990.2;
                                }
                            }
                        } else {
                            if (input[3] <= 3047.6500244140625) {
                                if (input[4] <= 2652608.0) {
                                    var1 = 3047.0;
                                } else {
                                    if (input[4] <= 3442014.5) {
                                        var1 = 3036.4;
                                    } else {
                                        var1 = 3027.2;
                                    }
                                }
                            } else {
                                if (input[1] <= 3057.5) {
                                    var1 = 3035.4;
                                } else {
                                    if (input[3] <= 3053.1500244140625) {
                                        var1 = 3019.0;
                                    } else {
                                        var1 = 3016.8;
                                    }
                                }
                            }
                        }
                    } else {
                        if (input[2] <= 3056.0999755859375) {
                            if (input[2] <= 3005.800048828125) {
                                var1 = 3074.4;
                            } else {
                                if (input[1] <= 3096.0499267578125) {
                                    if (input[3] <= 3076.8499755859375) {
                                        if (input[0] <= 3065.0) {
                                            var1 = 3057.625;
                                        } else {
                                            var1 = 3062.9;
                                        }
                                    } else {
                                        if (input[2] <= 3040.699951171875) {
                                            var1 = 3057.9;
                                        } else {
                                            var1 = 3054.8;
                                        }
                                    }
                                } else {
                                    if (input[2] <= 3027.75) {
                                        var1 = 3035.4;
                                    } else {
                                        var1 = 3048.3;
                                    }
                                }
                            }
                        } else {
                            if (input[4] <= 2961411.5) {
                                if (input[1] <= 3099.5999755859375) {
                                    var1 = 3084.9;
                                } else {
                                    var1 = 3087.1;
                                }
                            } else {
                                var1 = 3079.3;
                            }
                        }
                    }
                }
            } else {
                if (input[1] <= 3226.5) {
                    if (input[1] <= 3165.2999267578125) {
                        if (input[1] <= 3142.949951171875) {
                            if (input[4] <= 2248149.5) {
                                if (input[1] <= 3137.949951171875) {
                                    if (input[4] <= 2156140.5) {
                                        if (input[4] <= 1905983.5) {
                                            var1 = 3111.9;
                                        } else {
                                            var1 = 3110.0;
                                        }
                                    } else {
                                        var1 = 3102.2;
                                    }
                                } else {
                                    var1 = 3097.5;
                                }
                            } else {
                                if (input[1] <= 3133.199951171875) {
                                    var1 = 3102.6;
                                } else {
                                    if (input[0] <= 3099.5) {
                                        var1 = 3131.8;
                                    } else {
                                        var1 = 3124.2;
                                    }
                                }
                            }
                        } else {
                            if (input[0] <= 3144.6500244140625) {
                                if (input[2] <= 3101.949951171875) {
                                    var1 = 3147.7;
                                } else {
                                    if (input[4] <= 2129825.0) {
                                        var1 = 3133.4;
                                    } else {
                                        if (input[4] <= 2540460.0) {
                                            var1 = 3135.7;
                                        } else {
                                            var1 = 3135.8;
                                        }
                                    }
                                }
                            } else {
                                var1 = 3119.2;
                            }
                        }
                    } else {
                        if (input[3] <= 3177.9000244140625) {
                            if (input[1] <= 3181.25) {
                                if (input[3] <= 3167.449951171875) {
                                    if (input[1] <= 3179.050048828125) {
                                        var1 = 3162.9;
                                    } else {
                                        var1 = 3159.6;
                                    }
                                } else {
                                    var1 = 3169.2;
                                }
                            } else {
                                if (input[2] <= 3150.0) {
                                    var1 = 3172.8;
                                } else {
                                    if (input[2] <= 3159.5) {
                                        var1 = 3179.1;
                                    } else {
                                        var1 = 3176.7;
                                    }
                                }
                            }
                        } else {
                            if (input[0] <= 3177.550048828125) {
                                var1 = 3148.0;
                            } else {
                                var1 = 3158.2;
                            }
                        }
                    }
                } else {
                    if (input[3] <= 3296.1749267578125) {
                        if (input[4] <= 4269032.5) {
                            if (input[2] <= 3209.0250244140625) {
                                var1 = 3252.3;
                            } else {
                                if (input[3] <= 3262.2249755859375) {
                                    var1 = 3248.2;
                                } else {
                                    var1 = 3246.6;
                                }
                            }
                        } else {
                            if (input[4] <= 6067433.0) {
                                var1 = 3229.2;
                            } else {
                                var1 = 3231.5;
                            }
                        }
                    } else {
                        if (input[3] <= 3340.699951171875) {
                            var1 = 3274.05;
                        } else {
                            var1 = 3266.0;
                        }
                    }
                }
            }
        } else {
            if (input[2] <= 3458.7000732421875) {
                if (input[1] <= 3444.1500244140625) {
                    if (input[4] <= 4451025.0) {
                        if (input[1] <= 3410.75) {
                            if (input[1] <= 3404.0) {
                                if (input[3] <= 3377.4500732421875) {
                                    var1 = 3384.2;
                                } else {
                                    if (input[4] <= 2789909.5) {
                                        var1 = 3380.9;
                                    } else {
                                        var1 = 3382.0;
                                    }
                                }
                            } else {
                                var1 = 3371.1;
                            }
                        } else {
                            if (input[0] <= 3400.550048828125) {
                                var1 = 3421.9;
                            } else {
                                if (input[2] <= 3384.8499755859375) {
                                    if (input[3] <= 3414.6500244140625) {
                                        var1 = 3390.4;
                                    } else {
                                        var1 = 3393.6;
                                    }
                                } else {
                                    if (input[3] <= 3418.1500244140625) {
                                        var1 = 3401.6;
                                    } else {
                                        var1 = 3400.8000000000006;
                                    }
                                }
                            }
                        }
                    } else {
                        if (input[4] <= 5437462.5) {
                            var1 = 3299.4;
                        } else {
                            var1 = 3292.95;
                        }
                    }
                } else {
                    if (input[2] <= 3438.699951171875) {
                        if (input[0] <= 3479.5999755859375) {
                            if (input[1] <= 3485.4000244140625) {
                                if (input[4] <= 2126384.0) {
                                    if (input[4] <= 1828009.0) {
                                        if (input[3] <= 3444.9000244140625) {
                                            var1 = 3441.1;
                                        } else {
                                            var1 = 3443.5;
                                        }
                                    } else {
                                        var1 = 3449.8;
                                    }
                                } else {
                                    if (input[0] <= 3447.4000244140625) {
                                        if (input[3] <= 3423.2000732421875) {
                                            var1 = 3448.0;
                                        } else {
                                            var1 = 3441.05;
                                        }
                                    } else {
                                        if (input[3] <= 3456.699951171875) {
                                            var1 = 3424.0;
                                        } else {
                                            var1 = 3432.6999999999994;
                                        }
                                    }
                                }
                            } else {
                                if (input[1] <= 3488.6500244140625) {
                                    var1 = 3462.9;
                                } else {
                                    if (input[2] <= 3393.0) {
                                        var1 = 3453.7;
                                    } else {
                                        var1 = 3444.7;
                                    }
                                }
                            }
                        } else {
                            if (input[2] <= 3408.074951171875) {
                                var1 = 3403.15;
                            } else {
                                var1 = 3423.3;
                            }
                        }
                    } else {
                        if (input[3] <= 3453.7999267578125) {
                            var1 = 3454.3;
                        } else {
                            if (input[0] <= 3480.0) {
                                var1 = 3471.9;
                            } else {
                                var1 = 3463.4;
                            }
                        }
                    }
                }
            } else {
                if (input[2] <= 3556.375) {
                    if (input[2] <= 3508.9000244140625) {
                        if (input[4] <= 4082303.0) {
                            if (input[0] <= 3509.0) {
                                if (input[1] <= 3544.0) {
                                    var1 = 3525.8;
                                } else {
                                    var1 = 3532.05;
                                }
                            } else {
                                if (input[2] <= 3498.8499755859375) {
                                    if (input[0] <= 3520.9000244140625) {
                                        var1 = 3515.3;
                                    } else {
                                        if (input[0] <= 3548.5) {
                                            var1 = 3498.433333333333;
                                        } else {
                                            var1 = 3506.2;
                                        }
                                    }
                                } else {
                                    var1 = 3518.8;
                                }
                            }
                        } else {
                            var1 = 3493.0500000000006;
                        }
                    } else {
                        if (input[3] <= 3540.375) {
                            var1 = 3547.05;
                        } else {
                            var1 = 3579.9;
                        }
                    }
                } else {
                    if (input[2] <= 3601.199951171875) {
                        var1 = 3606.15;
                    } else {
                        if (input[0] <= 3629.925048828125) {
                            var1 = 3651.2;
                        } else {
                            var1 = 3657.75;
                        }
                    }
                }
            }
        }
    } else {
        if (input[1] <= 4227.875) {
            if (input[1] <= 4046.0) {
                if (input[1] <= 3870.699951171875) {
                    var1 = 3786.0;
                } else {
                    if (input[2] <= 3882.25) {
                        if (input[1] <= 3929.199951171875) {
                            var1 = 3873.2;
                        } else {
                            var1 = 3904.5;
                        }
                    } else {
                        if (input[1] <= 3994.0) {
                            var1 = 3934.85;
                        } else {
                            var1 = 3963.55;
                        }
                    }
                }
            } else {
                if (input[2] <= 4041.1500244140625) {
                    if (input[3] <= 4028.8499755859375) {
                        var1 = 4108.4;
                    } else {
                        if (input[2] <= 4012.9500732421875) {
                            if (input[3] <= 4088.875) {
                                var1 = 4029.4;
                            } else {
                                var1 = 4028.3;
                            }
                        } else {
                            if (input[3] <= 4047.27490234375) {
                                var1 = 4036.95;
                            } else {
                                if (input[2] <= 4026.800048828125) {
                                    var1 = 4038.85;
                                } else {
                                    var1 = 4040.3;
                                }
                            }
                        }
                    }
                } else {
                    if (input[2] <= 4102.02490234375) {
                        if (input[4] <= 600166.5) {
                            var1 = 4073.15;
                        } else {
                            if (input[3] <= 4191.02490234375) {
                                if (input[4] <= 990125.0) {
                                    var1 = 4112.45;
                                } else {
                                    if (input[4] <= 1938773.0) {
                                        if (input[1] <= 4118.875) {
                                            var1 = 4099.8;
                                        } else {
                                            var1 = 4099.929999999999;
                                        }
                                    } else {
                                        var1 = 4095.0;
                                    }
                                }
                            } else {
                                var1 = 4124.3;
                            }
                        }
                    } else {
                        if (input[2] <= 4108.0) {
                            var1 = 4152.35;
                        } else {
                            var1 = 4158.8;
                        }
                    }
                }
            }
        } else {
            if (input[2] <= 4275.800048828125) {
                if (input[4] <= 2826734.0) {
                    if (input[1] <= 4275.22509765625) {
                        var1 = 4249.6;
                    } else {
                        var1 = 4206.3;
                    }
                } else {
                    if (input[0] <= 4241.0) {
                        var1 = 4265.65;
                    } else {
                        var1 = 4271.9;
                    }
                }
            } else {
                if (input[1] <= 4415.699951171875) {
                    var1 = 4347.85;
                } else {
                    if (input[4] <= 1856431.5) {
                        var1 = 4415.2;
                    } else {
                        var1 = 4452.15;
                    }
                }
            }
        }
    }
    double var2;
    if (input[3] <= 3717.6500244140625) {
        if (input[1] <= 3324.14990234375) {
            if (input[1] <= 3099.89990234375) {
                if (input[2] <= 2964.25) {
                    if (input[3] <= 2937.25) {
                        if (input[1] <= 2924.4000244140625) {
                            var2 = 2901.9;
                        } else {
                            var2 = 2914.2;
                        }
                    } else {
                        if (input[4] <= 2446731.5) {
                            var2 = 2991.8;
                        } else {
                            if (input[1] <= 3017.050048828125) {
                                if (input[2] <= 2953.25) {
                                    var2 = 2969.8000000000006;
                                } else {
                                    var2 = 2973.7;
                                }
                            } else {
                                var2 = 2957.4;
                            }
                        }
                    }
                } else {
                    if (input[1] <= 3065.449951171875) {
                        if (input[1] <= 3039.25) {
                            if (input[0] <= 3019.0999755859375) {
                                if (input[4] <= 2596752.5) {
                                    var2 = 3010.9;
                                } else {
                                    if (input[3] <= 2986.699951171875) {
                                        var2 = 3015.2;
                                    } else {
                                        var2 = 3016.2;
                                    }
                                }
                            } else {
                                if (input[1] <= 3033.6500244140625) {
                                    var2 = 3006.7;
                                } else {
                                    var2 = 3007.2;
                                }
                            }
                        } else {
                            if (input[1] <= 3053.75) {
                                if (input[0] <= 2995.5) {
                                    var2 = 3027.2;
                                } else {
                                    if (input[1] <= 3050.75) {
                                        var2 = 3040.8;
                                    } else {
                                        var2 = 3047.0;
                                    }
                                }
                            } else {
                                if (input[2] <= 3022.050048828125) {
                                    if (input[4] <= 2984180.5) {
                                        if (input[0] <= 3048.449951171875) {
                                            var2 = 3016.8;
                                        } else {
                                            var2 = 3019.0;
                                        }
                                    } else {
                                        var2 = 3022.3;
                                    }
                                } else {
                                    if (input[4] <= 2193927.0) {
                                        var2 = 3035.4;
                                    } else {
                                        var2 = 3036.4;
                                    }
                                }
                            }
                        }
                    } else {
                        if (input[4] <= 1540436.0) {
                            var2 = 3032.3;
                        } else {
                            if (input[1] <= 3096.0499267578125) {
                                if (input[2] <= 3059.25) {
                                    if (input[0] <= 3021.550048828125) {
                                        var2 = 3074.4;
                                    } else {
                                        if (input[3] <= 3076.8499755859375) {
                                            var2 = 3060.283333333333;
                                        } else {
                                            var2 = 3056.3599999999997;
                                        }
                                    }
                                } else {
                                    var2 = 3084.9;
                                }
                            } else {
                                var2 = 3035.4;
                            }
                        }
                    }
                }
            } else {
                if (input[1] <= 3236.8499755859375) {
                    if (input[1] <= 3159.449951171875) {
                        if (input[1] <= 3135.199951171875) {
                            if (input[1] <= 3120.75) {
                                if (input[3] <= 3099.8499755859375) {
                                    if (input[0] <= 3063.449951171875) {
                                        var2 = 3098.6;
                                    } else {
                                        var2 = 3095.7;
                                    }
                                } else {
                                    if (input[0] <= 3106.0) {
                                        var2 = 3087.1;
                                    } else {
                                        var2 = 3079.3;
                                    }
                                }
                            } else {
                                if (input[4] <= 1982696.0) {
                                    var2 = 3111.9;
                                } else {
                                    if (input[4] <= 2731789.5) {
                                        var2 = 3102.2;
                                    } else {
                                        var2 = 3102.6;
                                    }
                                }
                            }
                        } else {
                            if (input[2] <= 3117.699951171875) {
                                if (input[2] <= 3090.10009765625) {
                                    if (input[4] <= 3954342.5) {
                                        var2 = 3140.6;
                                    } else {
                                        var2 = 3131.8;
                                    }
                                } else {
                                    if (input[4] <= 2461574.5) {
                                        var2 = 3111.5;
                                    } else {
                                        var2 = 3119.2;
                                    }
                                }
                            } else {
                                if (input[2] <= 3123.5999755859375) {
                                    if (input[0] <= 3134.449951171875) {
                                        var2 = 3135.7;
                                    } else {
                                        var2 = 3133.4;
                                    }
                                } else {
                                    if (input[2] <= 3125.300048828125) {
                                        var2 = 3137.5;
                                    } else {
                                        var2 = 3135.8;
                                    }
                                }
                            }
                        }
                    } else {
                        if (input[1] <= 3200.300048828125) {
                            if (input[4] <= 2428826.5) {
                                var2 = 3179.1;
                            } else {
                                if (input[4] <= 3066407.0) {
                                    var2 = 3148.0;
                                } else {
                                    if (input[2] <= 3148.0) {
                                        if (input[2] <= 3132.0) {
                                            var2 = 3157.2;
                                        } else {
                                            var2 = 3169.2;
                                        }
                                    } else {
                                        if (input[2] <= 3153.300048828125) {
                                            var2 = 3158.2;
                                        } else {
                                            var2 = 3159.6;
                                        }
                                    }
                                }
                            }
                        } else {
                            if (input[3] <= 3191.0) {
                                if (input[3] <= 3154.25) {
                                    var2 = 3180.0;
                                } else {
                                    var2 = 3176.6999999999994;
                                }
                            } else {
                                var2 = 3189.9;
                            }
                        }
                    }
                } else {
                    if (input[1] <= 3274.050048828125) {
                        if (input[4] <= 2765499.0) {
                            var2 = 3233.1;
                        } else {
                            var2 = 3246.6;
                        }
                    } else {
                        if (input[0] <= 3281.2999267578125) {
                            if (input[2] <= 3142.5250244140625) {
                                var2 = 3274.05;
                            } else {
                                var2 = 3273.8;
                            }
                        } else {
                            var2 = 3248.2;
                        }
                    }
                }
            }
        } else {
            if (input[1] <= 3485.4000244140625) {
                if (input[0] <= 3375.800048828125) {
                    if (input[4] <= 4013932.5) {
                        var2 = 3314.4;
                    } else {
                        if (input[4] <= 5437462.5) {
                            var2 = 3299.4;
                        } else {
                            var2 = 3292.95;
                        }
                    }
                } else {
                    if (input[2] <= 3386.050048828125) {
                        if (input[0] <= 3412.5) {
                            if (input[4] <= 2289872.5) {
                                var2 = 3383.8;
                            } else {
                                var2 = 3380.9;
                            }
                        } else {
                            if (input[3] <= 3414.6500244140625) {
                                var2 = 3390.4;
                            } else {
                                var2 = 3393.6;
                            }
                        }
                    } else {
                        if (input[2] <= 3414.4000244140625) {
                            if (input[4] <= 2760446.5) {
                                if (input[0] <= 3399.5) {
                                    var2 = 3440.3;
                                } else {
                                    if (input[0] <= 3452.5) {
                                        if (input[4] <= 1413999.0) {
                                            var2 = 3419.8;
                                        } else {
                                            var2 = 3422.95;
                                        }
                                    } else {
                                        var2 = 3429.7;
                                    }
                                }
                            } else {
                                var2 = 3405.2;
                            }
                        } else {
                            if (input[4] <= 1551598.0) {
                                var2 = 3460.0;
                            } else {
                                if (input[0] <= 3463.449951171875) {
                                    if (input[3] <= 3454.0999755859375) {
                                        if (input[2] <= 3423.1500244140625) {
                                            var2 = 3441.8;
                                        } else {
                                            var2 = 3441.1;
                                        }
                                    } else {
                                        var2 = 3449.8;
                                    }
                                } else {
                                    var2 = 3434.2;
                                }
                            }
                        }
                    }
                }
            } else {
                if (input[2] <= 3500.25) {
                    if (input[2] <= 3459.875) {
                        if (input[0] <= 3452.5) {
                            if (input[2] <= 3434.7999267578125) {
                                var2 = 3462.9;
                            } else {
                                var2 = 3454.3;
                            }
                        } else {
                            if (input[0] <= 3482.5) {
                                if (input[2] <= 3439.75) {
                                    var2 = 3472.5;
                                } else {
                                    var2 = 3471.9;
                                }
                            } else {
                                if (input[1] <= 3548.9000244140625) {
                                    var2 = 3477.0;
                                } else {
                                    var2 = 3483.25;
                                }
                            }
                        }
                    } else {
                        if (input[3] <= 3504.675048828125) {
                            if (input[4] <= 2992904.5) {
                                if (input[1] <= 3528.5) {
                                    var2 = 3515.3;
                                } else {
                                    if (input[2] <= 3481.300048828125) {
                                        var2 = 3532.05;
                                    } else {
                                        var2 = 3525.8;
                                    }
                                }
                            } else {
                                if (input[1] <= 3527.875) {
                                    var2 = 3493.05;
                                } else {
                                    var2 = 3498.1;
                                }
                            }
                        } else {
                            if (input[4] <= 2579293.0) {
                                if (input[3] <= 3528.050048828125) {
                                    var2 = 3498.3;
                                } else {
                                    var2 = 3498.7;
                                }
                            } else {
                                if (input[0] <= 3518.0) {
                                    var2 = 3497.6999999999994;
                                } else {
                                    var2 = 3497.1;
                                }
                            }
                        }
                    }
                } else {
                    if (input[1] <= 3626.75) {
                        if (input[2] <= 3533.0750732421875) {
                            if (input[4] <= 3305608.5) {
                                if (input[1] <= 3611.675048828125) {
                                    if (input[2] <= 3515.47509765625) {
                                        var2 = 3537.3;
                                    } else {
                                        if (input[3] <= 3541.425048828125) {
                                            var2 = 3547.05;
                                        } else {
                                            var2 = 3543.95;
                                        }
                                    }
                                } else {
                                    var2 = 3515.0;
                                }
                            } else {
                                var2 = 3579.9;
                            }
                        } else {
                            var2 = 3601.6;
                        }
                    } else {
                        if (input[4] <= 2378576.0) {
                            if (input[1] <= 3645.7249755859375) {
                                var2 = 3620.4;
                            } else {
                                var2 = 3606.15;
                            }
                        } else {
                            if (input[3] <= 3632.375) {
                                var2 = 3657.75;
                            } else {
                                var2 = 3651.2;
                            }
                        }
                    }
                }
            }
        }
    } else {
        if (input[1] <= 4169.675048828125) {
            if (input[1] <= 4046.0) {
                if (input[2] <= 3803.75) {
                    var2 = 3779.4;
                } else {
                    if (input[0] <= 3890.75) {
                        var2 = 3904.5;
                    } else {
                        if (input[2] <= 3927.5) {
                            var2 = 3934.85;
                        } else {
                            var2 = 3963.55;
                        }
                    }
                }
            } else {
                if (input[2] <= 4035.5250244140625) {
                    if (input[2] <= 4012.9500732421875) {
                        if (input[4] <= 2108997.0) {
                            var2 = 4029.4;
                        } else {
                            var2 = 4028.3;
                        }
                    } else {
                        if (input[2] <= 4022.175048828125) {
                            var2 = 4036.95;
                        } else {
                            var2 = 4035.85;
                        }
                    }
                } else {
                    if (input[1] <= 4132.89990234375) {
                        if (input[2] <= 4062.2750244140625) {
                            if (input[2] <= 4056.25) {
                                var2 = 4099.8;
                            } else {
                                var2 = 4100.05;
                            }
                        } else {
                            var2 = 4107.05;
                        }
                    } else {
                        if (input[2] <= 4048.5250244140625) {
                            var2 = 4065.15;
                        } else {
                            if (input[3] <= 4118.349853515625) {
                                var2 = 4073.15;
                            } else {
                                var2 = 4077.8;
                            }
                        }
                    }
                }
            }
        } else {
            if (input[1] <= 4328.0) {
                if (input[2] <= 4151.925048828125) {
                    if (input[0] <= 4135.5) {
                        var2 = 4175.75;
                    } else {
                        var2 = 4158.8;
                    }
                } else {
                    var2 = 4206.3;
                }
            } else {
                if (input[0] <= 4420.02490234375) {
                    if (input[1] <= 4397.47509765625) {
                        var2 = 4347.85;
                    } else {
                        var2 = 4328.5;
                    }
                } else {
                    if (input[4] <= 1780433.0) {
                        var2 = 4415.2;
                    } else {
                        var2 = 4454.95;
                    }
                }
            }
        }
    }
    double var3;
    if (input[0] <= 3706.25) {
        if (input[0] <= 3318.5) {
            if (input[1] <= 3120.3499755859375) {
                if (input[2] <= 2964.25) {
                    if (input[2] <= 2894.800048828125) {
                        if (input[2] <= 2880.300048828125) {
                            var3 = 2914.2;
                        } else {
                            var3 = 2896.1;
                        }
                    } else {
                        if (input[4] <= 2587858.5) {
                            if (input[1] <= 2998.800048828125) {
                                var3 = 2988.4;
                            } else {
                                var3 = 2991.8;
                            }
                        } else {
                            if (input[4] <= 4628293.5) {
                                if (input[3] <= 2979.0999755859375) {
                                    if (input[0] <= 2970.449951171875) {
                                        var3 = 2970.7;
                                    } else {
                                        var3 = 2969.8;
                                    }
                                } else {
                                    var3 = 2973.7;
                                }
                            } else {
                                var3 = 2957.4;
                            }
                        }
                    }
                } else {
                    if (input[1] <= 3070.449951171875) {
                        if (input[1] <= 3039.9000244140625) {
                            if (input[3] <= 3013.199951171875) {
                                if (input[4] <= 2596752.5) {
                                    var3 = 3010.9;
                                } else {
                                    if (input[4] <= 2891911.5) {
                                        var3 = 3016.2;
                                    } else {
                                        var3 = 3015.2;
                                    }
                                }
                            } else {
                                if (input[2] <= 2999.0999755859375) {
                                    if (input[2] <= 2997.0999755859375) {
                                        var3 = 3006.7;
                                    } else {
                                        var3 = 3007.2;
                                    }
                                } else {
                                    var3 = 3003.0;
                                }
                            }
                        } else {
                            if (input[4] <= 2584631.5) {
                                if (input[1] <= 3050.75) {
                                    if (input[0] <= 3036.25) {
                                        var3 = 3036.2;
                                    } else {
                                        var3 = 3040.8;
                                    }
                                } else {
                                    var3 = 3047.0;
                                }
                            } else {
                                if (input[4] <= 3143891.5) {
                                    if (input[4] <= 2785898.0) {
                                        var3 = 3019.0;
                                    } else {
                                        var3 = 3011.2;
                                    }
                                } else {
                                    if (input[4] <= 3732031.5) {
                                        var3 = 3022.3;
                                    } else {
                                        var3 = 3027.2;
                                    }
                                }
                            }
                        }
                    } else {
                        if (input[0] <= 3068.25) {
                            if (input[1] <= 3086.7999267578125) {
                                if (input[3] <= 3030.449951171875) {
                                    var3 = 3074.4;
                                } else {
                                    var3 = 3057.6;
                                }
                            } else {
                                if (input[2] <= 3035.5499267578125) {
                                    var3 = 3098.6;
                                } else {
                                    var3 = 3084.9;
                                }
                            }
                        } else {
                            if (input[3] <= 3119.2000732421875) {
                                if (input[3] <= 3090.2999267578125) {
                                    if (input[3] <= 3079.64990234375) {
                                        if (input[4] <= 2931029.5) {
                                            var3 = 3063.3749999999995;
                                        } else {
                                            var3 = 3062.4;
                                        }
                                    } else {
                                        var3 = 3057.9;
                                    }
                                } else {
                                    if (input[1] <= 3099.5499267578125) {
                                        var3 = 3054.0;
                                    } else {
                                        var3 = 3048.3;
                                    }
                                }
                            } else {
                                if (input[1] <= 3112.449951171875) {
                                    var3 = 3073.8;
                                } else {
                                    var3 = 3079.3;
                                }
                            }
                        }
                    }
                }
            } else {
                if (input[1] <= 3236.8499755859375) {
                    if (input[1] <= 3166.5) {
                        if (input[1] <= 3133.199951171875) {
                            if (input[2] <= 3068.25) {
                                var3 = 3110.0;
                            } else {
                                if (input[2] <= 3084.85009765625) {
                                    var3 = 3102.6;
                                } else {
                                    var3 = 3102.2;
                                }
                            }
                        } else {
                            if (input[1] <= 3153.5) {
                                if (input[3] <= 3138.9000244140625) {
                                    if (input[1] <= 3143.1500244140625) {
                                        if (input[4] <= 3361880.5) {
                                            var3 = 3124.2;
                                        } else {
                                            var3 = 3131.8;
                                        }
                                    } else {
                                        if (input[4] <= 1531928.5) {
                                            var3 = 3133.4;
                                        } else {
                                            var3 = 3138.12;
                                        }
                                    }
                                } else {
                                    var3 = 3119.2;
                                }
                            } else {
                                var3 = 3111.5;
                            }
                        }
                    } else {
                        if (input[1] <= 3207.449951171875) {
                            if (input[2] <= 3154.800048828125) {
                                if (input[2] <= 3148.0) {
                                    if (input[0] <= 3135.4000244140625) {
                                        var3 = 3162.9;
                                    } else {
                                        if (input[3] <= 3161.199951171875) {
                                            var3 = 3172.8;
                                        } else {
                                            var3 = 3169.1999999999994;
                                        }
                                    }
                                } else {
                                    var3 = 3158.2;
                                }
                            } else {
                                if (input[1] <= 3192.5) {
                                    var3 = 3179.1;
                                } else {
                                    var3 = 3176.7;
                                }
                            }
                        } else {
                            if (input[3] <= 3172.449951171875) {
                                var3 = 3180.0;
                            } else {
                                var3 = 3189.9;
                            }
                        }
                    }
                } else {
                    if (input[1] <= 3275.050048828125) {
                        if (input[2] <= 3206.0250244140625) {
                            if (input[3] <= 3223.0) {
                                var3 = 3229.2;
                            } else {
                                var3 = 3222.7;
                            }
                        } else {
                            if (input[3] <= 3272.625) {
                                if (input[1] <= 3258.25) {
                                    var3 = 3233.1;
                                } else {
                                    var3 = 3238.2;
                                }
                            } else {
                                var3 = 3246.6;
                            }
                        }
                    } else {
                        if (input[0] <= 3308.2249755859375) {
                            if (input[3] <= 3286.7249755859375) {
                                if (input[3] <= 3261.0) {
                                    var3 = 3273.8;
                                } else {
                                    if (input[0] <= 3273.7750244140625) {
                                        var3 = 3298.9;
                                    } else {
                                        var3 = 3292.95;
                                    }
                                }
                            } else {
                                if (input[3] <= 3340.699951171875) {
                                    var3 = 3274.05;
                                } else {
                                    var3 = 3266.0;
                                }
                            }
                        } else {
                            var3 = 3248.1999999999994;
                        }
                    }
                }
            }
        } else {
            if (input[2] <= 3459.875) {
                if (input[2] <= 3388.9000244140625) {
                    if (input[0] <= 3366.85009765625) {
                        if (input[0] <= 3342.60009765625) {
                            var3 = 3314.4;
                        } else {
                            var3 = 3299.4;
                        }
                    } else {
                        if (input[1] <= 3410.75) {
                            if (input[1] <= 3404.0) {
                                if (input[4] <= 2307598.5) {
                                    var3 = 3384.2;
                                } else {
                                    if (input[0] <= 3384.5) {
                                        var3 = 3382.0;
                                    } else {
                                        var3 = 3380.9;
                                    }
                                }
                            } else {
                                var3 = 3371.1;
                            }
                        } else {
                            var3 = 3401.6;
                        }
                    }
                } else {
                    if (input[2] <= 3429.5499267578125) {
                        if (input[1] <= 3440.800048828125) {
                            if (input[3] <= 3412.050048828125) {
                                if (input[4] <= 1413999.0) {
                                    var3 = 3419.8;
                                } else {
                                    var3 = 3421.9;
                                }
                            } else {
                                var3 = 3400.8;
                            }
                        } else {
                            if (input[3] <= 3422.949951171875) {
                                if (input[0] <= 3430.0) {
                                    var3 = 3448.0;
                                } else {
                                    var3 = 3462.9;
                                }
                            } else {
                                if (input[4] <= 2608179.5) {
                                    if (input[3] <= 3457.8499755859375) {
                                        if (input[3] <= 3434.550048828125) {
                                            var3 = 3435.7;
                                        } else {
                                            var3 = 3445.2000000000003;
                                        }
                                    } else {
                                        var3 = 3429.7;
                                    }
                                } else {
                                    if (input[3] <= 3461.64990234375) {
                                        if (input[0] <= 3468.5999755859375) {
                                            var3 = 3424.0;
                                        } else {
                                            var3 = 3423.3;
                                        }
                                    } else {
                                        var3 = 3434.1999999999994;
                                    }
                                }
                            }
                        }
                    } else {
                        if (input[3] <= 3442.6500244140625) {
                            var3 = 3441.1;
                        } else {
                            if (input[4] <= 1451547.5) {
                                if (input[0] <= 3455.0) {
                                    var3 = 3454.3;
                                } else {
                                    var3 = 3460.0;
                                }
                            } else {
                                if (input[3] <= 3555.3250732421875) {
                                    if (input[0] <= 3480.0) {
                                        if (input[0] <= 3462.5) {
                                            var3 = 3472.5;
                                        } else {
                                            var3 = 3471.9;
                                        }
                                    } else {
                                        var3 = 3463.4;
                                    }
                                } else {
                                    var3 = 3483.25;
                                }
                            }
                        }
                    }
                }
            } else {
                if (input[2] <= 3506.1500244140625) {
                    if (input[2] <= 3498.8499755859375) {
                        if (input[1] <= 3521.625) {
                            var3 = 3515.3;
                        } else {
                            if (input[1] <= 3563.625) {
                                if (input[3] <= 3490.4749755859375) {
                                    var3 = 3493.05;
                                } else {
                                    if (input[2] <= 3472.925048828125) {
                                        var3 = 3497.1;
                                    } else {
                                        if (input[0] <= 3531.9000244140625) {
                                            var3 = 3498.2500000000005;
                                        } else {
                                            var3 = 3498.7;
                                        }
                                    }
                                }
                            } else {
                                var3 = 3506.2;
                            }
                        }
                    } else {
                        var3 = 3518.8000000000006;
                    }
                } else {
                    if (input[1] <= 3604.9000244140625) {
                        if (input[4] <= 2731842.5) {
                            if (input[2] <= 3538.0750732421875) {
                                if (input[4] <= 1365891.5) {
                                    var3 = 3537.3;
                                } else {
                                    if (input[4] <= 2560193.5) {
                                        if (input[3] <= 3541.425048828125) {
                                            var3 = 3547.4625000000005;
                                        } else {
                                            var3 = 3543.95;
                                        }
                                    } else {
                                        var3 = 3550.8;
                                    }
                                }
                            } else {
                                var3 = 3561.3;
                            }
                        } else {
                            var3 = 3563.15;
                        }
                    } else {
                        if (input[4] <= 1943335.0) {
                            var3 = 3628.95;
                        } else {
                            if (input[1] <= 3635.199951171875) {
                                var3 = 3601.6;
                            } else {
                                var3 = 3606.15;
                            }
                        }
                    }
                }
            }
        }
    } else {
        if (input[2] <= 3938.0250244140625) {
            if (input[2] <= 3815.5999755859375) {
                if (input[4] <= 2361251.5) {
                    var3 = 3786.0;
                } else {
                    var3 = 3779.4;
                }
            } else {
                if (input[4] <= 1974842.5) {
                    var3 = 3904.5;
                } else {
                    var3 = 3873.2;
                }
            }
        } else {
            if (input[0] <= 4271.0) {
                if (input[1] <= 4158.47509765625) {
                    if (input[2] <= 4047.5250244140625) {
                        if (input[1] <= 4148.35009765625) {
                            if (input[2] <= 4012.9500732421875) {
                                var3 = 4028.3;
                            } else {
                                if (input[4] <= 2219931.5) {
                                    if (input[3] <= 4053.5999755859375) {
                                        var3 = 4036.95;
                                    } else {
                                        var3 = 4035.85;
                                    }
                                } else {
                                    var3 = 4040.3;
                                }
                            }
                        } else {
                            var3 = 4065.15;
                        }
                    } else {
                        if (input[1] <= 4137.125) {
                            if (input[0] <= 4068.8499755859375) {
                                var3 = 4099.8;
                            } else {
                                if (input[1] <= 4123.650146484375) {
                                    var3 = 4107.05;
                                } else {
                                    var3 = 4112.4;
                                }
                            }
                        } else {
                            if (input[1] <= 4147.724853515625) {
                                var3 = 4077.8;
                            } else {
                                if (input[1] <= 4149.824951171875) {
                                    var3 = 4095.0;
                                } else {
                                    var3 = 4091.1;
                                }
                            }
                        }
                    }
                } else {
                    if (input[0] <= 4211.5) {
                        if (input[1] <= 4161.875) {
                            var3 = 4124.3;
                        } else {
                            if (input[0] <= 4157.0) {
                                if (input[2] <= 4108.0) {
                                    if (input[0] <= 4077.0) {
                                        var3 = 4156.6;
                                    } else {
                                        var3 = 4152.35;
                                    }
                                } else {
                                    var3 = 4158.8;
                                }
                            } else {
                                var3 = 4164.85;
                            }
                        }
                    } else {
                        var3 = 4206.3;
                    }
                }
            } else {
                if (input[3] <= 4410.875) {
                    var3 = 4271.9;
                } else {
                    var3 = 4415.2;
                }
            }
        }
    }
    double var4;
    if (input[2] <= 3694.6500244140625) {
        if (input[2] <= 3246.9500732421875) {
            if (input[1] <= 3120.75) {
                if (input[2] <= 2958.0) {
                    if (input[4] <= 2981231.0) {
                        if (input[4] <= 2426210.5) {
                            var4 = 2914.1999999999994;
                        } else {
                            var4 = 2901.9;
                        }
                    } else {
                        if (input[3] <= 2997.7999267578125) {
                            if (input[3] <= 2974.3499755859375) {
                                var4 = 2969.8;
                            } else {
                                var4 = 2973.7;
                            }
                        } else {
                            if (input[4] <= 4292888.5) {
                                var4 = 2960.3;
                            } else {
                                var4 = 2957.4;
                            }
                        }
                    }
                } else {
                    if (input[1] <= 3070.449951171875) {
                        if (input[1] <= 3039.25) {
                            if (input[2] <= 2977.25) {
                                if (input[4] <= 2250620.0) {
                                    var4 = 2991.8;
                                } else {
                                    var4 = 2990.2;
                                }
                            } else {
                                if (input[3] <= 3013.199951171875) {
                                    if (input[4] <= 2891911.5) {
                                        var4 = 3016.2;
                                    } else {
                                        var4 = 3015.2;
                                    }
                                } else {
                                    if (input[0] <= 3029.050048828125) {
                                        var4 = 3007.1999999999994;
                                    } else {
                                        var4 = 3006.7;
                                    }
                                }
                            }
                        } else {
                            if (input[1] <= 3057.5) {
                                if (input[4] <= 3332482.5) {
                                    if (input[4] <= 2345621.0) {
                                        if (input[2] <= 3030.800048828125) {
                                            var4 = 3036.2;
                                        } else {
                                            var4 = 3035.4;
                                        }
                                    } else {
                                        var4 = 3047.0;
                                    }
                                } else {
                                    var4 = 3027.2;
                                }
                            } else {
                                if (input[3] <= 3047.6500244140625) {
                                    var4 = 3036.4;
                                } else {
                                    if (input[1] <= 3061.449951171875) {
                                        var4 = 3016.8;
                                    } else {
                                        var4 = 3019.0;
                                    }
                                }
                            }
                        }
                    } else {
                        if (input[0] <= 3034.39990234375) {
                            var4 = 3098.6;
                        } else {
                            if (input[3] <= 3115.75) {
                                if (input[1] <= 3096.7999267578125) {
                                    if (input[4] <= 2789869.0) {
                                        if (input[1] <= 3083.75) {
                                            var4 = 3063.9;
                                        } else {
                                            var4 = 3063.2;
                                        }
                                    } else {
                                        if (input[2] <= 3049.050048828125) {
                                            var4 = 3057.75;
                                        } else {
                                            var4 = 3062.4;
                                        }
                                    }
                                } else {
                                    var4 = 3048.3000000000006;
                                }
                            } else {
                                if (input[0] <= 3102.5) {
                                    var4 = 3073.8;
                                } else {
                                    var4 = 3079.3;
                                }
                            }
                        }
                    }
                }
            } else {
                if (input[3] <= 3179.550048828125) {
                    if (input[1] <= 3175.8499755859375) {
                        if (input[1] <= 3144.5999755859375) {
                            if (input[4] <= 2248149.5) {
                                if (input[4] <= 1766156.5) {
                                    var4 = 3111.9;
                                } else {
                                    if (input[4] <= 2016313.5) {
                                        var4 = 3097.5;
                                    } else {
                                        var4 = 3102.2;
                                    }
                                }
                            } else {
                                if (input[1] <= 3137.699951171875) {
                                    var4 = 3131.8;
                                } else {
                                    var4 = 3124.2;
                                }
                            }
                        } else {
                            if (input[1] <= 3154.5) {
                                if (input[4] <= 2598008.5) {
                                    if (input[1] <= 3148.0) {
                                        var4 = 3137.5;
                                    } else {
                                        if (input[2] <= 3121.5999755859375) {
                                            var4 = 3133.4;
                                        } else {
                                            var4 = 3133.4;
                                        }
                                    }
                                } else {
                                    var4 = 3140.6;
                                }
                            } else {
                                if (input[4] <= 2817772.5) {
                                    var4 = 3144.8;
                                } else {
                                    if (input[1] <= 3164.3499755859375) {
                                        var4 = 3147.7;
                                    } else {
                                        var4 = 3148.0;
                                    }
                                }
                            }
                        }
                    } else {
                        if (input[1] <= 3181.050048828125) {
                            if (input[4] <= 2853281.5) {
                                var4 = 3162.9;
                            } else {
                                var4 = 3159.6;
                            }
                        } else {
                            if (input[1] <= 3207.449951171875) {
                                if (input[3] <= 3152.6500244140625) {
                                    var4 = 3172.8;
                                } else {
                                    if (input[0] <= 3172.300048828125) {
                                        var4 = 3179.1;
                                    } else {
                                        var4 = 3176.7;
                                    }
                                }
                            } else {
                                var4 = 3180.0;
                            }
                        }
                    }
                } else {
                    if (input[1] <= 3275.050048828125) {
                        if (input[2] <= 3203.0) {
                            if (input[0] <= 3230.0) {
                                var4 = 3229.2;
                            } else {
                                var4 = 3222.7;
                            }
                        } else {
                            if (input[4] <= 2565811.0) {
                                var4 = 3233.1;
                            } else {
                                if (input[3] <= 3257.824951171875) {
                                    var4 = 3252.3;
                                } else {
                                    var4 = 3246.6;
                                }
                            }
                        }
                    } else {
                        if (input[0] <= 3268.875) {
                            if (input[3] <= 3273.7999267578125) {
                                var4 = 3273.8;
                            } else {
                                var4 = 3274.05;
                            }
                        } else {
                            if (input[3] <= 3239.050048828125) {
                                var4 = 3248.2;
                            } else {
                                var4 = 3231.5;
                            }
                        }
                    }
                }
            }
        } else {
            if (input[1] <= 3514.949951171875) {
                if (input[0] <= 3366.85009765625) {
                    if (input[0] <= 3300.9749755859375) {
                        var4 = 3266.0;
                    } else {
                        if (input[1] <= 3341.449951171875) {
                            var4 = 3314.4;
                        } else {
                            if (input[0] <= 3332.3250732421875) {
                                var4 = 3292.95;
                            } else {
                                var4 = 3299.4;
                            }
                        }
                    }
                } else {
                    if (input[2] <= 3402.75) {
                        if (input[3] <= 3461.1500244140625) {
                            if (input[2] <= 3384.8499755859375) {
                                if (input[0] <= 3411.800048828125) {
                                    if (input[3] <= 3388.1500244140625) {
                                        var4 = 3384.1999999999994;
                                    } else {
                                        var4 = 3380.9;
                                    }
                                } else {
                                    var4 = 3390.4;
                                }
                            } else {
                                if (input[0] <= 3400.550048828125) {
                                    var4 = 3421.9;
                                } else {
                                    if (input[0] <= 3403.050048828125) {
                                        var4 = 3401.6;
                                    } else {
                                        if (input[1] <= 3449.25) {
                                            var4 = 3406.2;
                                        } else {
                                            var4 = 3405.2;
                                        }
                                    }
                                }
                            }
                        } else {
                            var4 = 3453.7;
                        }
                    } else {
                        if (input[1] <= 3493.25) {
                            if (input[4] <= 1400945.5) {
                                var4 = 3460.0;
                            } else {
                                if (input[3] <= 3422.949951171875) {
                                    if (input[2] <= 3414.0999755859375) {
                                        var4 = 3448.0;
                                    } else {
                                        var4 = 3462.9;
                                    }
                                } else {
                                    if (input[3] <= 3467.64990234375) {
                                        if (input[3] <= 3443.4500732421875) {
                                            var4 = 3438.3999999999996;
                                        } else {
                                            var4 = 3446.25;
                                        }
                                    } else {
                                        var4 = 3434.2;
                                    }
                                }
                            }
                        } else {
                            if (input[4] <= 1431387.5) {
                                var4 = 3454.3;
                            } else {
                                if (input[1] <= 3496.4000244140625) {
                                    var4 = 3472.5;
                                } else {
                                    var4 = 3477.0;
                                }
                            }
                        }
                    }
                }
            } else {
                if (input[1] <= 3604.9000244140625) {
                    if (input[2] <= 3506.9000244140625) {
                        if (input[3] <= 3503.675048828125) {
                            if (input[3] <= 3494.675048828125) {
                                var4 = 3532.05;
                            } else {
                                var4 = 3515.3;
                            }
                        } else {
                            if (input[0] <= 3548.5) {
                                if (input[1] <= 3552.5) {
                                    if (input[3] <= 3531.75) {
                                        var4 = 3497.7;
                                    } else {
                                        var4 = 3497.1;
                                    }
                                } else {
                                    var4 = 3498.3;
                                }
                            } else {
                                var4 = 3518.8;
                            }
